digraph Tree {
node [shape=box] ;
0 [label="X[1] <= 37.5\ngini = 0.55\nsamples = 480\nvalue = [107, 80, 293]\nclass = C"] ;
1 [label="X[2] <= 11.5\ngini = 0.648\nsamples = 233\nvalue = [102, 57, 74]\nclass = A"] ;
0 -> 1 [labeldistance=2.5, labelangle=45, headlabel="True"] ;
2 [label="gini = 0.0\nsamples = 20\nvalue = [0, 20, 0]\nclass = B"] ;
1 -> 2 ;
3 [label="X[0] <= 18.5\ngini = 0.62\nsamples = 213\nvalue = [102, 37, 74]\nclass = A"] ;
1 -> 3 ;
4 [label="X[2] <= 34.5\ngini = 0.447\nsamples = 80\nvalue = [57, 15, 8]\nclass = A"] ;
3 -> 4 ;
5 [label="X[1] <= 19.5\ngini = 0.38\nsamples = 74\nvalue = [57, 9, 8]\nclass = A"] ;
4 -> 5 ;
6 [label="X[0] <= 9.5\ngini = 0.194\nsamples = 46\nvalue = [41, 5, 0]\nclass = A"] ;
5 -> 6 ;
7 [label="X[2] <= 17.5\ngini = 0.5\nsamples = 6\nvalue = [3, 3, 0]\nclass = A"] ;
6 -> 7 ;
8 [label="gini = 0.0\nsamples = 3\nvalue = [0, 3, 0]\nclass = B"] ;
7 -> 8 ;
9 [label="gini = 0.0\nsamples = 3\nvalue = [3, 0, 0]\nclass = A"] ;
7 -> 9 ;
10 [label="X[1] <= 11.5\ngini = 0.095\nsamples = 40\nvalue = [38, 2, 0]\nclass = A"] ;
6 -> 10 ;
11 [label="X[2] <= 13.5\ngini = 0.408\nsamples = 7\nvalue = [5, 2, 0]\nclass = A"] ;
10 -> 11 ;
12 [label="gini = 0.0\nsamples = 2\nvalue = [2, 0, 0]\nclass = A"] ;
11 -> 12 ;
13 [label="X[1] <= 9.5\ngini = 0.48\nsamples = 5\nvalue = [3, 2, 0]\nclass = A"] ;
11 -> 13 ;
14 [label="gini = 0.0\nsamples = 1\nvalue = [1, 0, 0]\nclass = A"] ;
13 -> 14 ;
15 [label="X[0] <= 11.5\ngini = 0.5\nsamples = 4\nvalue = [2, 2, 0]\nclass = A"] ;
13 -> 15 ;
16 [label="gini = 0.0\nsamples = 1\nvalue = [1, 0, 0]\nclass = A"] ;
15 -> 16 ;
17 [label="X[0] <= 14.5\ngini = 0.444\nsamples = 3\nvalue = [1, 2, 0]\nclass = B"] ;
15 -> 17 ;
18 [label="gini = 0.0\nsamples = 2\nvalue = [0, 2, 0]\nclass = B"] ;
17 -> 18 ;
19 [label="gini = 0.0\nsamples = 1\nvalue = [1, 0, 0]\nclass = A"] ;
17 -> 19 ;
20 [label="gini = 0.0\nsamples = 33\nvalue = [33, 0, 0]\nclass = A"] ;
10 -> 20 ;
21 [label="X[0] <= 10.5\ngini = 0.571\nsamples = 28\nvalue = [16, 4, 8]\nclass = A"] ;
5 -> 21 ;
22 [label="gini = 0.0\nsamples = 2\nvalue = [0, 2, 0]\nclass = B"] ;
21 -> 22 ;
23 [label="X[0] <= 13.5\ngini = 0.521\nsamples = 26\nvalue = [16, 2, 8]\nclass = A"] ;
21 -> 23 ;
24 [label="X[0] <= 11.5\ngini = 0.444\nsamples = 6\nvalue = [2, 0, 4]\nclass = C"] ;
23 -> 24 ;
25 [label="gini = 0.0\nsamples = 1\nvalue = [1, 0, 0]\nclass = A"] ;
24 -> 25 ;
26 [label="X[1] <= 25.0\ngini = 0.32\nsamples = 5\nvalue = [1, 0, 4]\nclass = C"] ;
24 -> 26 ;
27 [label="gini = 0.0\nsamples = 4\nvalue = [0, 0, 4]\nclass = C"] ;
26 -> 27 ;
28 [label="gini = 0.0\nsamples = 1\nvalue = [1, 0, 0]\nclass = A"] ;
26 -> 28 ;
29 [label="X[2] <= 12.5\ngini = 0.46\nsamples = 20\nvalue = [14, 2, 4]\nclass = A"] ;
23 -> 29 ;
30 [label="gini = 0.0\nsamples = 1\nvalue = [0, 1, 0]\nclass = B"] ;
29 -> 30 ;
31 [label="X[1] <= 25.5\ngini = 0.41\nsamples = 19\nvalue = [14, 1, 4]\nclass = A"] ;
29 -> 31 ;
32 [label="X[2] <= 28.5\ngini = 0.219\nsamples = 8\nvalue = [7, 1, 0]\nclass = A"] ;
31 -> 32 ;
33 [label="gini = 0.0\nsamples = 7\nvalue = [7, 0, 0]\nclass = A"] ;
32 -> 33 ;
34 [label="gini = 0.0\nsamples = 1\nvalue = [0, 1, 0]\nclass = B"] ;
32 -> 34 ;
35 [label="X[2] <= 26.5\ngini = 0.463\nsamples = 11\nvalue = [7, 0, 4]\nclass = A"] ;
31 -> 35 ;
36 [label="X[0] <= 16.5\ngini = 0.444\nsamples = 3\nvalue = [1, 0, 2]\nclass = C"] ;
35 -> 36 ;
37 [label="gini = 0.0\nsamples = 1\nvalue = [1, 0, 0]\nclass = A"] ;
36 -> 37 ;
38 [label="gini = 0.0\nsamples = 2\nvalue = [0, 0, 2]\nclass = C"] ;
36 -> 38 ;
39 [label="X[1] <= 27.5\ngini = 0.375\nsamples = 8\nvalue = [6, 0, 2]\nclass = A"] ;
35 -> 39 ;
40 [label="X[0] <= 14.5\ngini = 0.5\nsamples = 4\nvalue = [2, 0, 2]\nclass = A"] ;
39 -> 40 ;
41 [label="gini = 0.0\nsamples = 1\nvalue = [1, 0, 0]\nclass = A"] ;
40 -> 41 ;
42 [label="X[0] <= 15.5\ngini = 0.444\nsamples = 3\nvalue = [1, 0, 2]\nclass = C"] ;
40 -> 42 ;
43 [label="gini = 0.0\nsamples = 1\nvalue = [0, 0, 1]\nclass = C"] ;
42 -> 43 ;
44 [label="X[2] <= 27.5\ngini = 0.5\nsamples = 2\nvalue = [1, 0, 1]\nclass = A"] ;
42 -> 44 ;
45 [label="gini = 0.0\nsamples = 1\nvalue = [0, 0, 1]\nclass = C"] ;
44 -> 45 ;
46 [label="gini = 0.0\nsamples = 1\nvalue = [1, 0, 0]\nclass = A"] ;
44 -> 46 ;
47 [label="gini = 0.0\nsamples = 4\nvalue = [4, 0, 0]\nclass = A"] ;
39 -> 47 ;
48 [label="gini = 0.0\nsamples = 6\nvalue = [0, 6, 0]\nclass = B"] ;
4 -> 48 ;
49 [label="X[1] <= 17.5\ngini = 0.612\nsamples = 133\nvalue = [45, 22, 66]\nclass = C"] ;
3 -> 49 ;
50 [label="X[0] <= 24.5\ngini = 0.59\nsamples = 27\nvalue = [7, 15, 5]\nclass = B"] ;
49 -> 50 ;
51 [label="X[2] <= 21.5\ngini = 0.648\nsamples = 16\nvalue = [7, 4, 5]\nclass = A"] ;
50 -> 51 ;
52 [label="X[2] <= 15.0\ngini = 0.408\nsamples = 7\nvalue = [5, 2, 0]\nclass = A"] ;
51 -> 52 ;
53 [label="gini = 0.0\nsamples = 1\nvalue = [0, 1, 0]\nclass = B"] ;
52 -> 53 ;
54 [label="X[1] <= 16.0\ngini = 0.278\nsamples = 6\nvalue = [5, 1, 0]\nclass = A"] ;
52 -> 54 ;
55 [label="gini = 0.0\nsamples = 5\nvalue = [5, 0, 0]\nclass = A"] ;
54 -> 55 ;
56 [label="gini = 0.0\nsamples = 1\nvalue = [0, 1, 0]\nclass = B"] ;
54 -> 56 ;
57 [label="X[2] <= 26.0\ngini = 0.593\nsamples = 9\nvalue = [2, 2, 5]\nclass = C"] ;
51 -> 57 ;
58 [label="gini = 0.0\nsamples = 5\nvalue = [0, 0, 5]\nclass = C"] ;
57 -> 58 ;
59 [label="X[2] <= 45.0\ngini = 0.5\nsamples = 4\nvalue = [2, 2, 0]\nclass = A"] ;
57 -> 59 ;
60 [label="gini = 0.0\nsamples = 2\nvalue = [2, 0, 0]\nclass = A"] ;
59 -> 60 ;
61 [label="gini = 0.0\nsamples = 2\nvalue = [0, 2, 0]\nclass = B"] ;
59 -> 61 ;
62 [label="gini = 0.0\nsamples = 11\nvalue = [0, 11, 0]\nclass = B"] ;
50 -> 62 ;
63 [label="X[0] <= 67.5\ngini = 0.536\nsamples = 106\nvalue = [38, 7, 61]\nclass = C"] ;
49 -> 63 ;
64 [label="X[2] <= 50.5\ngini = 0.5\nsamples = 101\nvalue = [37, 3, 61]\nclass = C"] ;
63 -> 64 ;
65 [label="X[2] <= 17.5\ngini = 0.48\nsamples = 95\nvalue = [33, 2, 60]\nclass = C"] ;
64 -> 65 ;
66 [label="X[0] <= 19.5\ngini = 0.408\nsamples = 7\nvalue = [5, 0, 2]\nclass = A"] ;
65 -> 66 ;
67 [label="gini = 0.0\nsamples = 1\nvalue = [0, 0, 1]\nclass = C"] ;
66 -> 67 ;
68 [label="X[1] <= 24.5\ngini = 0.278\nsamples = 6\nvalue = [5, 0, 1]\nclass = A"] ;
66 -> 68 ;
69 [label="gini = 0.0\nsamples = 4\nvalue = [4, 0, 0]\nclass = A"] ;
68 -> 69 ;
70 [label="X[0] <= 23.5\ngini = 0.5\nsamples = 2\nvalue = [1, 0, 1]\nclass = A"] ;
68 -> 70 ;
71 [label="gini = 0.0\nsamples = 1\nvalue = [0, 0, 1]\nclass = C"] ;
70 -> 71 ;
72 [label="gini = 0.0\nsamples = 1\nvalue = [1, 0, 0]\nclass = A"] ;
70 -> 72 ;
73 [label="X[0] <= 50.0\ngini = 0.464\nsamples = 88\nvalue = [28, 2, 58]\nclass = C"] ;
65 -> 73 ;
74 [label="X[0] <= 26.5\ngini = 0.453\nsamples = 86\nvalue = [26, 2, 58]\nclass = C"] ;
73 -> 74 ;
75 [label="X[1] <= 30.5\ngini = 0.541\nsamples = 37\nvalue = [15, 2, 20]\nclass = C"] ;
74 -> 75 ;
76 [label="X[2] <= 34.5\ngini = 0.495\nsamples = 31\nvalue = [9, 2, 20]\nclass = C"] ;
75 -> 76 ;
77 [label="X[2] <= 24.5\ngini = 0.426\nsamples = 28\nvalue = [7, 1, 20]\nclass = C"] ;
76 -> 77 ;
78 [label="X[2] <= 20.5\ngini = 0.593\nsamples = 9\nvalue = [4, 1, 4]\nclass = A"] ;
77 -> 78 ;
79 [label="X[1] <= 21.0\ngini = 0.5\nsamples = 6\nvalue = [1, 1, 4]\nclass = C"] ;
78 -> 79 ;
80 [label="gini = 0.0\nsamples = 1\nvalue = [0, 1, 0]\nclass = B"] ;
79 -> 80 ;
81 [label="X[0] <= 23.0\ngini = 0.32\nsamples = 5\nvalue = [1, 0, 4]\nclass = C"] ;
79 -> 81 ;
82 [label="gini = 0.0\nsamples = 3\nvalue = [0, 0, 3]\nclass = C"] ;
81 -> 82 ;
83 [label="X[2] <= 18.5\ngini = 0.5\nsamples = 2\nvalue = [1, 0, 1]\nclass = A"] ;
81 -> 83 ;
84 [label="gini = 0.0\nsamples = 1\nvalue = [1, 0, 0]\nclass = A"] ;
83 -> 84 ;
85 [label="gini = 0.0\nsamples = 1\nvalue = [0, 0, 1]\nclass = C"] ;
83 -> 85 ;
86 [label="gini = 0.0\nsamples = 3\nvalue = [3, 0, 0]\nclass = A"] ;
78 -> 86 ;
87 [label="X[0] <= 21.5\ngini = 0.266\nsamples = 19\nvalue = [3, 0, 16]\nclass = C"] ;
77 -> 87 ;
88 [label="X[0] <= 20.5\ngini = 0.5\nsamples = 2\nvalue = [1, 0, 1]\nclass = A"] ;
87 -> 88 ;
89 [label="gini = 0.0\nsamples = 1\nvalue = [0, 0, 1]\nclass = C"] ;
88 -> 89 ;
90 [label="gini = 0.0\nsamples = 1\nvalue = [1, 0, 0]\nclass = A"] ;
88 -> 90 ;
91 [label="X[2] <= 27.5\ngini = 0.208\nsamples = 17\nvalue = [2, 0, 15]\nclass = C"] ;
87 -> 91 ;
92 [label="gini = 0.0\nsamples = 5\nvalue = [0, 0, 5]\nclass = C"] ;
91 -> 92 ;
93 [label="X[1] <= 18.5\ngini = 0.278\nsamples = 12\nvalue = [2, 0, 10]\nclass = C"] ;
91 -> 93 ;
94 [label="gini = 0.0\nsamples = 1\nvalue = [1, 0, 0]\nclass = A"] ;
93 -> 94 ;
95 [label="X[2] <= 28.5\ngini = 0.165\nsamples = 11\nvalue = [1, 0, 10]\nclass = C"] ;
93 -> 95 ;
96 [label="gini = 0.0\nsamples = 1\nvalue = [1, 0, 0]\nclass = A"] ;
95 -> 96 ;
97 [label="gini = 0.0\nsamples = 10\nvalue = [0, 0, 10]\nclass = C"] ;
95 -> 97 ;
98 [label="X[0] <= 22.5\ngini = 0.444\nsamples = 3\nvalue = [2, 1, 0]\nclass = A"] ;
76 -> 98 ;
99 [label="gini = 0.0\nsamples = 1\nvalue = [0, 1, 0]\nclass = B"] ;
98 -> 99 ;
100 [label="gini = 0.0\nsamples = 2\nvalue = [2, 0, 0]\nclass = A"] ;
98 -> 100 ;
101 [label="gini = 0.0\nsamples = 6\nvalue = [6, 0, 0]\nclass = A"] ;
75 -> 101 ;
102 [label="X[2] <= 29.5\ngini = 0.348\nsamples = 49\nvalue = [11, 0, 38]\nclass = C"] ;
74 -> 102 ;
103 [label="X[1] <= 34.0\ngini = 0.444\nsamples = 24\nvalue = [8, 0, 16]\nclass = C"] ;
102 -> 103 ;
104 [label="X[0] <= 28.5\ngini = 0.363\nsamples = 21\nvalue = [5, 0, 16]\nclass = C"] ;
103 -> 104 ;
105 [label="gini = 0.0\nsamples = 8\nvalue = [0, 0, 8]\nclass = C"] ;
104 -> 105 ;
106 [label="X[0] <= 32.5\ngini = 0.473\nsamples = 13\nvalue = [5, 0, 8]\nclass = C"] ;
104 -> 106 ;
107 [label="X[2] <= 22.5\ngini = 0.408\nsamples = 7\nvalue = [5, 0, 2]\nclass = A"] ;
106 -> 107 ;
108 [label="gini = 0.0\nsamples = 3\nvalue = [3, 0, 0]\nclass = A"] ;
107 -> 108 ;
109 [label="X[2] <= 24.0\ngini = 0.5\nsamples = 4\nvalue = [2, 0, 2]\nclass = A"] ;
107 -> 109 ;
110 [label="gini = 0.0\nsamples = 2\nvalue = [0, 0, 2]\nclass = C"] ;
109 -> 110 ;
111 [label="gini = 0.0\nsamples = 2\nvalue = [2, 0, 0]\nclass = A"] ;
109 -> 111 ;
112 [label="gini = 0.0\nsamples = 6\nvalue = [0, 0, 6]\nclass = C"] ;
106 -> 112 ;
113 [label="gini = 0.0\nsamples = 3\nvalue = [3, 0, 0]\nclass = A"] ;
103 -> 113 ;
114 [label="X[0] <= 27.5\ngini = 0.211\nsamples = 25\nvalue = [3, 0, 22]\nclass = C"] ;
102 -> 114 ;
115 [label="gini = 0.0\nsamples = 1\nvalue = [1, 0, 0]\nclass = A"] ;
114 -> 115 ;
116 [label="X[2] <= 47.5\ngini = 0.153\nsamples = 24\nvalue = [2, 0, 22]\nclass = C"] ;
114 -> 116 ;
117 [label="X[0] <= 37.5\ngini = 0.087\nsamples = 22\nvalue = [1, 0, 21]\nclass = C"] ;
116 -> 117 ;
118 [label="gini = 0.0\nsamples = 15\nvalue = [0, 0, 15]\nclass = C"] ;
117 -> 118 ;
119 [label="X[1] <= 33.0\ngini = 0.245\nsamples = 7\nvalue = [1, 0, 6]\nclass = C"] ;
117 -> 119 ;
120 [label="X[1] <= 31.5\ngini = 0.5\nsamples = 2\nvalue = [1, 0, 1]\nclass = A"] ;
119 -> 120 ;
121 [label="gini = 0.0\nsamples = 1\nvalue = [0, 0, 1]\nclass = C"] ;
120 -> 121 ;
122 [label="gini = 0.0\nsamples = 1\nvalue = [1, 0, 0]\nclass = A"] ;
120 -> 122 ;
123 [label="gini = 0.0\nsamples = 5\nvalue = [0, 0, 5]\nclass = C"] ;
119 -> 123 ;
124 [label="X[0] <= 34.0\ngini = 0.5\nsamples = 2\nvalue = [1, 0, 1]\nclass = A"] ;
116 -> 124 ;
125 [label="gini = 0.0\nsamples = 1\nvalue = [1, 0, 0]\nclass = A"] ;
124 -> 125 ;
126 [label="gini = 0.0\nsamples = 1\nvalue = [0, 0, 1]\nclass = C"] ;
124 -> 126 ;
127 [label="gini = 0.0\nsamples = 2\nvalue = [2, 0, 0]\nclass = A"] ;
73 -> 127 ;
128 [label="X[2] <= 69.5\ngini = 0.5\nsamples = 6\nvalue = [4, 1, 1]\nclass = A"] ;
64 -> 128 ;
129 [label="X[1] <= 32.0\ngini = 0.32\nsamples = 5\nvalue = [4, 0, 1]\nclass = A"] ;
128 -> 129 ;
130 [label="gini = 0.0\nsamples = 3\nvalue = [3, 0, 0]\nclass = A"] ;
129 -> 130 ;
131 [label="X[0] <= 40.5\ngini = 0.5\nsamples = 2\nvalue = [1, 0, 1]\nclass = A"] ;
129 -> 131 ;
132 [label="gini = 0.0\nsamples = 1\nvalue = [0, 0, 1]\nclass = C"] ;
131 -> 132 ;
133 [label="gini = 0.0\nsamples = 1\nvalue = [1, 0, 0]\nclass = A"] ;
131 -> 133 ;
134 [label="gini = 0.0\nsamples = 1\nvalue = [0, 1, 0]\nclass = B"] ;
128 -> 134 ;
135 [label="X[1] <= 32.0\ngini = 0.32\nsamples = 5\nvalue = [1, 4, 0]\nclass = B"] ;
63 -> 135 ;
136 [label="gini = 0.0\nsamples = 4\nvalue = [0, 4, 0]\nclass = B"] ;
135 -> 136 ;
137 [label="gini = 0.0\nsamples = 1\nvalue = [1, 0, 0]\nclass = A"] ;
135 -> 137 ;
138 [label="X[2] <= 28.0\ngini = 0.205\nsamples = 247\nvalue = [5, 23, 219]\nclass = C"] ;
0 -> 138 [labeldistance=2.5, labelangle=-45, headlabel="False"] ;
139 [label="X[1] <= 40.5\ngini = 0.338\nsamples = 15\nvalue = [2, 12, 1]\nclass = B"] ;
138 -> 139 ;
140 [label="X[2] <= 26.5\ngini = 0.444\nsamples = 3\nvalue = [2, 0, 1]\nclass = A"] ;
139 -> 140 ;
141 [label="gini = 0.0\nsamples = 2\nvalue = [2, 0, 0]\nclass = A"] ;
140 -> 141 ;
142 [label="gini = 0.0\nsamples = 1\nvalue = [0, 0, 1]\nclass = C"] ;
140 -> 142 ;
143 [label="gini = 0.0\nsamples = 12\nvalue = [0, 12, 0]\nclass = B"] ;
139 -> 143 ;
144 [label="X[0] <= 16.5\ngini = 0.115\nsamples = 232\nvalue = [3, 11, 218]\nclass = C"] ;
138 -> 144 ;
145 [label="gini = 0.0\nsamples = 3\nvalue = [0, 3, 0]\nclass = B"] ;
144 -> 145 ;
146 [label="X[0] <= 132.5\ngini = 0.092\nsamples = 229\nvalue = [3, 8, 218]\nclass = C"] ;
144 -> 146 ;
147 [label="X[1] <= 171.0\ngini = 0.077\nsamples = 227\nvalue = [3, 6, 218]\nclass = C"] ;
146 -> 147 ;
148 [label="X[0] <= 27.5\ngini = 0.069\nsamples = 226\nvalue = [3, 5, 218]\nclass = C"] ;
147 -> 148 ;
149 [label="X[1] <= 55.0\ngini = 0.438\nsamples = 18\nvalue = [3, 2, 13]\nclass = C"] ;
148 -> 149 ;
150 [label="X[1] <= 49.5\ngini = 0.595\nsamples = 11\nvalue = [3, 2, 6]\nclass = C"] ;
149 -> 150 ;
151 [label="X[2] <= 38.5\ngini = 0.494\nsamples = 9\nvalue = [1, 2, 6]\nclass = C"] ;
150 -> 151 ;
152 [label="X[1] <= 45.0\ngini = 0.245\nsamples = 7\nvalue = [0, 1, 6]\nclass = C"] ;
151 -> 152 ;
153 [label="gini = 0.0\nsamples = 4\nvalue = [0, 0, 4]\nclass = C"] ;
152 -> 153 ;
154 [label="X[1] <= 46.5\ngini = 0.444\nsamples = 3\nvalue = [0, 1, 2]\nclass = C"] ;
152 -> 154 ;
155 [label="gini = 0.0\nsamples = 1\nvalue = [0, 1, 0]\nclass = B"] ;
154 -> 155 ;
156 [label="gini = 0.0\nsamples = 2\nvalue = [0, 0, 2]\nclass = C"] ;
154 -> 156 ;
157 [label="X[2] <= 39.5\ngini = 0.5\nsamples = 2\nvalue = [1, 1, 0]\nclass = A"] ;
151 -> 157 ;
158 [label="gini = 0.0\nsamples = 1\nvalue = [1, 0, 0]\nclass = A"] ;
157 -> 158 ;
159 [label="gini = 0.0\nsamples = 1\nvalue = [0, 1, 0]\nclass = B"] ;
157 -> 159 ;
160 [label="gini = 0.0\nsamples = 2\nvalue = [2, 0, 0]\nclass = A"] ;
150 -> 160 ;
161 [label="gini = 0.0\nsamples = 7\nvalue = [0, 0, 7]\nclass = C"] ;
149 -> 161 ;
162 [label="X[0] <= 104.0\ngini = 0.028\nsamples = 208\nvalue = [0, 3, 205]\nclass = C"] ;
148 -> 162 ;
163 [label="X[1] <= 50.5\ngini = 0.01\nsamples = 196\nvalue = [0, 1, 195]\nclass = C"] ;
162 -> 163 ;
164 [label="X[2] <= 67.5\ngini = 0.033\nsamples = 60\nvalue = [0, 1, 59]\nclass = C"] ;
163 -> 164 ;
165 [label="gini = 0.0\nsamples = 56\nvalue = [0, 0, 56]\nclass = C"] ;
164 -> 165 ;
166 [label="X[1] <= 48.5\ngini = 0.375\nsamples = 4\nvalue = [0, 1, 3]\nclass = C"] ;
164 -> 166 ;
167 [label="gini = 0.0\nsamples = 3\nvalue = [0, 0, 3]\nclass = C"] ;
166 -> 167 ;
168 [label="gini = 0.0\nsamples = 1\nvalue = [0, 1, 0]\nclass = B"] ;
166 -> 168 ;
169 [label="gini = 0.0\nsamples = 136\nvalue = [0, 0, 136]\nclass = C"] ;
163 -> 169 ;
170 [label="X[2] <= 71.0\ngini = 0.278\nsamples = 12\nvalue = [0, 2, 10]\nclass = C"] ;
162 -> 170 ;
171 [label="gini = 0.0\nsamples = 9\nvalue = [0, 0, 9]\nclass = C"] ;
170 -> 171 ;
172 [label="X[1] <= 70.5\ngini = 0.444\nsamples = 3\nvalue = [0, 2, 1]\nclass = B"] ;
170 -> 172 ;
173 [label="gini = 0.0\nsamples = 2\nvalue = [0, 2, 0]\nclass = B"] ;
172 -> 173 ;
174 [label="gini = 0.0\nsamples = 1\nvalue = [0, 0, 1]\nclass = C"] ;
172 -> 174 ;
175 [label="gini = 0.0\nsamples = 1\nvalue = [0, 1, 0]\nclass = B"] ;
147 -> 175 ;
176 [label="gini = 0.0\nsamples = 2\nvalue = [0, 2, 0]\nclass = B"] ;
146 -> 176 ;
}
